/*!
 * The following copyright notice may not be removed under any circumstances.
 * 
 * Copyright:
 * Copyright 2000 Agfa Monotype Corporation. All Rights Reserved.
 */
Cufon.registerFont({"w":1024,"face":{"font-family":"Helvetica Condensed","font-weight":700,"font-stretch":"condensed","units-per-em":"2048","panose-1":"2 11 8 6 2 2 2 3 2 4","ascent":"1638","descent":"-410","x-height":"30","bbox":"-80 -1664 1661 502","underline-thickness":"102","underline-position":"-154","unicode-range":"U+0020-U+007E"},"glyphs":{" ":{"w":512},"\u00a0":{"w":512},"!":{"d":"253,-397v-59,-590,-45,-646,-46,-1139r270,0v-2,487,14,557,-46,1139r-178,0xm207,0r0,-270r270,0r0,270r-270,0","w":682},"#":{"d":"63,-472r0,-201r200,0r21,-192r-172,0r0,-201r194,0r55,-438r170,0r-53,438r147,0r51,-438r175,0r-53,438r152,0r0,201r-176,0r-20,192r146,0r0,201r-169,0r-57,472r-175,0r57,-472r-148,0r-59,472r-170,0r58,-472r-174,0xm433,-673r143,0r25,-192r-145,0"},"$":{"d":"446,39v-222,-8,-372,-171,-370,-401r0,-95r242,0v5,169,5,247,128,285r0,-462v-133,-77,-225,-153,-276,-226v-51,-74,-76,-164,-76,-271v0,-221,149,-362,352,-381r0,-128r125,0r0,128v243,28,353,138,353,416r-242,0v-3,-122,-18,-181,-111,-212r0,414v151,87,252,164,305,233v53,69,79,149,79,241v-1,300,-125,415,-384,459r0,224r-125,0r0,-224xm571,-585r0,413v83,-21,124,-85,124,-190v0,-95,-41,-169,-124,-223xm446,-1308v-65,6,-110,81,-110,156v0,92,37,160,110,203r0,-359"},"%":{"d":"432,31r689,-1559r143,0r-689,1559r-143,0xm1333,0v-248,0,-314,-110,-314,-375v0,-284,69,-381,315,-381v244,0,312,107,314,375v2,286,-77,381,-315,381xm1336,-608v-102,0,-119,61,-120,183r0,97v1,124,17,180,118,180v104,0,114,-59,117,-181r0,-97v-2,-120,-13,-182,-115,-182xm378,-740v-252,0,-314,-106,-314,-375v0,-278,70,-381,315,-381v240,0,315,97,314,375v-1,271,-68,381,-315,381xm381,-1348v-102,0,-119,61,-120,183r0,97v1,124,17,180,118,180v104,0,114,-59,117,-181r0,-97v-2,-120,-13,-182,-115,-182","w":1706},"&":{"d":"546,32v-250,0,-416,-209,-416,-461v0,-185,96,-343,288,-476v-48,-87,-118,-216,-118,-332v0,-207,149,-331,352,-331v180,0,326,137,326,320v0,152,-78,279,-235,380r190,329v29,-96,45,-174,48,-277r229,0v0,204,-45,376,-136,515r184,309r-309,0r-56,-105v-95,86,-211,129,-347,129xm394,-472v0,120,80,272,200,272v68,0,131,-27,189,-81r-243,-424v-61,29,-146,131,-146,233xm745,-1242v0,-66,-38,-122,-100,-122v-109,0,-118,111,-72,196v20,36,36,73,54,106v79,-61,118,-121,118,-180","w":1366},"'":{"d":"128,-1512r245,0r0,560r-245,0r0,-560","w":512},")":{"d":"298,-625v0,-441,-52,-615,-192,-951r169,0v198,360,293,531,293,1021v0,365,-96,684,-289,959r-169,0v147,-274,188,-610,188,-1029","w":682},"*":{"d":"160,-1196r51,-156r221,64r0,-224r165,0r0,224r217,-64r55,160r-217,56r131,196r-135,97r-125,-192r-142,192r-135,-97r140,-190"},"+":{"d":"48,-616r352,0r0,-384r225,0r0,384r352,0r0,225r-352,0r0,384r-225,0r0,-384r-352,0r0,-225"},",":{"d":"207,215v91,-8,154,-101,143,-215r-143,0r0,-272r270,0r0,263v0,185,-90,290,-270,313r0,-89","w":682},"-":{"d":"96,-758r480,0r0,236r-480,0r0,-236","w":682},".":{"d":"207,-270r270,0r0,270r-270,0r0,-270","w":682},"\/":{"d":"-21,192r479,-1728r177,0r-479,1728r-177,0","w":569},"0":{"d":"99,-416r0,-690v0,-286,140,-429,419,-429v275,0,412,147,412,440r0,682v0,296,-137,444,-412,444v-279,0,-419,-149,-419,-447xm386,-1096r0,688v0,143,41,214,122,214v90,0,135,-73,135,-218r0,-684v0,-143,-43,-214,-129,-214v-85,0,-128,71,-128,214"},"1":{"d":"80,-1268v237,0,380,-87,428,-260r211,0r0,1528r-287,0r0,-1064r-352,0r0,-204"},"2":{"d":"502,-1535v267,0,429,157,429,398v0,152,-65,291,-190,421r-219,228v-100,102,-150,190,-150,263r537,0r0,225r-842,0v19,-388,64,-433,297,-693v74,-81,205,-203,250,-285v20,-37,30,-88,30,-153v0,-119,-46,-179,-139,-179v-161,0,-148,100,-156,287r-269,0v-15,-332,119,-512,422,-512"},"3":{"d":"890,-1146v0,170,-71,302,-211,322v161,23,242,146,242,371v0,323,-148,484,-445,484v-279,0,-418,-149,-418,-446r0,-98r269,0v0,123,10,207,31,252v21,45,64,67,131,67v144,-2,145,-115,145,-265v0,-210,-38,-243,-288,-246r0,-225v197,-5,266,-25,266,-212v0,-112,-45,-168,-134,-168v-89,0,-133,43,-133,128r0,95r-269,0v-14,-296,113,-448,401,-448v275,0,413,130,413,389"},"4":{"d":"49,-536r466,-968r318,0r0,966r130,0r0,225r-130,0r0,313r-287,0r0,-313r-497,0r0,-223xm260,-538r286,0r0,-626"},"5":{"d":"946,-505v0,348,-106,536,-428,536v-355,0,-435,-146,-441,-512r269,0v5,181,7,287,159,287v103,0,154,-87,154,-260r0,-103v0,-173,-56,-260,-167,-260v-76,0,-143,55,-147,111r-255,0r40,-798r744,0r0,225r-524,0r-18,325v53,-59,128,-88,225,-88v303,0,389,213,389,537"},"6":{"d":"648,-1183v-5,-81,-35,-127,-106,-127v-117,0,-175,82,-175,246r0,147v46,-73,119,-109,218,-109v277,0,358,182,358,483v0,195,-30,339,-91,433v-60,94,-173,141,-338,141v-343,0,-429,-220,-429,-569r0,-381v0,-221,32,-378,96,-473v65,-95,181,-143,350,-143v251,0,387,122,381,352r-264,0xm510,-194v119,0,146,-68,146,-206r0,-214v0,-125,-47,-187,-141,-187v-96,0,-144,75,-144,225r0,133v4,153,11,249,139,249"},"7":{"d":"928,-1298v-208,353,-346,844,-375,1298r-296,0v0,-119,41,-318,122,-596v82,-279,180,-506,294,-683r-609,0r0,-225r864,0r0,206"},"8":{"d":"85,-430v0,-239,59,-328,216,-400v-131,-62,-185,-153,-184,-353v1,-217,168,-352,403,-352v264,0,396,128,396,383v-1,206,-53,270,-197,328v169,53,229,133,229,387v0,312,-142,468,-425,468v-312,0,-437,-143,-438,-461xm372,-502r0,118v0,127,49,190,148,190v94,0,141,-70,141,-210r0,-118v0,-132,-47,-198,-141,-198v-99,0,-148,73,-148,218xm381,-1120v0,131,46,196,137,196v89,0,134,-71,134,-213v0,-115,-44,-173,-132,-173v-93,0,-139,63,-139,190"},"9":{"d":"479,31v-235,1,-394,-116,-381,-352r264,0v4,85,39,127,106,127v134,0,175,-97,175,-245r0,-148v-47,73,-119,109,-218,109v-279,0,-358,-181,-358,-483v0,-376,79,-574,429,-574v342,0,429,221,429,569r0,382v0,221,-32,378,-97,473v-65,95,-181,142,-349,142xm500,-1310v-119,0,-146,68,-146,206r0,215v0,124,47,186,141,186v96,0,144,-75,144,-225r0,-132v-4,-152,-13,-250,-139,-250"},"=":{"d":"48,-421r912,0r0,225r-912,0r0,-225xm48,-822r912,0r0,225r-912,0r0,-225"},">":{"d":"928,-411r-848,460r0,-229r603,-329r-603,-346r0,-229r848,469r0,204"},"?":{"d":"295,-270r270,0r0,270r-270,0r0,-270xm502,-1365v-132,0,-139,62,-143,228r-253,0v-21,-283,128,-439,399,-439v239,0,398,140,398,381v0,108,-30,202,-89,281v-59,79,-120,151,-182,214v-68,71,-97,160,-92,286r-241,0v-5,-169,30,-298,106,-393v83,-105,218,-215,215,-387v-2,-101,-29,-171,-118,-171"},"A":{"d":"18,0r368,-1536r385,0r352,1536r-309,0r-76,-392r-334,0r-77,392r-309,0xm449,-617r245,0r-116,-631xm579,-1664r0,0r0,0xm972,0r0,0r0,0xm0,-1568r0,0r0,0","w":1139},"B":{"d":"134,0r0,-1536r496,0v245,0,367,131,367,394v0,165,-63,272,-188,321v152,27,228,147,228,359v0,308,-131,462,-392,462r-511,0xm741,-466v0,-167,-47,-218,-206,-222r-114,0r0,463r145,0v143,-4,175,-83,175,-241xm710,-1132v0,-119,-26,-178,-146,-179r-143,0r0,398r96,0v165,-4,193,-49,193,-219","w":1139},"C":{"d":"408,-518v0,196,42,318,205,318v51,0,88,-26,112,-77v24,-52,36,-141,36,-267r287,0v-4,339,-100,579,-435,576v-406,-4,-495,-205,-501,-631r0,-325v0,-242,38,-410,114,-503v77,-94,198,-141,364,-141v327,0,440,175,442,512r-282,0v0,-95,-10,-165,-29,-211v-19,-46,-56,-69,-110,-69v-135,0,-203,107,-203,320r0,498xm595,-1664r0,0r0,0xm620,0r0,0r0,0","w":1139},"D":{"d":"148,0r0,-1536r590,0v176,4,316,137,354,316v36,169,40,717,-7,884v-55,197,-155,336,-404,336r-533,0xm435,-225r133,0v107,0,172,-39,210,-108v58,-105,60,-754,5,-869v-34,-71,-86,-109,-169,-109r-179,0r0,1086xm544,-1664r0,0r0,0xm0,-1568r0,0r0,0","w":1251},"E":{"d":"130,0r0,-1536r815,0r0,225r-528,0r0,390r488,0r0,225r-488,0r0,471r528,0r0,225r-815,0xm544,-1664r0,0r0,0xm802,0r0,0r0,0xm0,-1568r0,0r0,0"},"F":{"d":"148,0r0,-1536r815,0r0,225r-528,0r0,390r497,0r0,225r-497,0r0,696r-287,0"},"G":{"d":"617,-1336v-161,0,-209,139,-209,320r0,498v0,212,68,318,205,318v81,0,138,-34,171,-102v33,-68,50,-167,50,-297r-192,0r0,-225r470,0r0,824r-215,0r0,-192v-48,135,-139,224,-310,224v-386,0,-470,-208,-475,-631r0,-310v0,-255,40,-428,119,-520v80,-93,209,-139,387,-139v359,1,495,157,498,512r-287,0v-3,-183,-37,-280,-212,-280xm614,-1664r0,0r0,0xm610,0r0,0r0,0","w":1251},"H":{"d":"139,-1536r287,0r0,607r401,0r0,-607r287,0r0,1536r-287,0r0,-704r-401,0r0,704r-287,0r0,-1536","w":1251},"I":{"d":"143,-1536r287,0r0,1536r-287,0r0,-1536xm289,-1664r0,0r0,0xm317,0r0,0r0,0xm0,-1568r0,0r0,0","w":569},"J":{"d":"396,32v-241,0,-391,-112,-383,-384r0,-144r287,0r0,187v0,73,31,109,94,109v66,0,99,-47,99,-141r0,-1195r287,0r0,1201v-1,260,-123,367,-384,367","w":909},"K":{"d":"139,0r0,-1536r287,0r0,660r349,-660r323,0r-380,666r398,870r-323,0r-270,-606r-97,168r0,438r-287,0xm628,0r0,0r0,0","w":1139},"L":{"d":"139,-1536r287,0r0,1311r528,0r0,225r-815,0r0,-1536xm282,-1664r0,0r0,0xm547,0r0,0r0,0xm0,-1568r0,0r0,0"},"M":{"d":"139,-1536r457,0r209,942r204,-942r457,0r0,1536r-287,0r0,-1326r-289,1326r-175,0r-289,-1326r0,1326r-287,0r0,-1536","w":1593},"N":{"d":"139,-1536r300,0r388,972r0,-972r287,0r0,1536r-300,0r-388,-948r0,948r-287,0r0,-1536xm627,-1664r0,0r0,0xm627,0r0,0r0,0xm0,-1568r0,0r0,0","w":1251},"O":{"d":"629,32v-401,0,-500,-193,-504,-631r0,-306v0,-253,39,-426,116,-521v77,-95,205,-142,384,-142v200,0,333,53,400,160v67,106,100,274,100,503r0,308v-7,427,-91,629,-496,629xm421,-1016r0,498v0,212,66,318,199,318v139,0,209,-102,209,-306r0,-489v0,-227,-68,-341,-204,-341v-136,0,-204,107,-204,320xm625,-1664r0,0r0,0","w":1251},"P":{"d":"714,-1536v251,1,368,170,368,434v0,308,-153,462,-459,462r-197,0r0,640r-287,0r0,-1536r575,0xm786,-1107v-2,-159,-50,-202,-215,-204r-145,0r0,446r145,0v156,-4,217,-70,215,-242","w":1139},"Q":{"d":"628,32v-397,0,-501,-185,-503,-631r0,-306v0,-237,35,-407,104,-509v70,-103,202,-154,396,-154v179,0,307,47,384,139v77,92,116,268,116,529r0,308v0,205,-28,355,-85,450r157,152r-143,134r-163,-154v-62,28,-150,42,-263,42xm829,-995v-4,-194,-27,-341,-204,-341v-136,0,-204,107,-204,320r0,498v4,242,76,343,268,314r-52,-50r157,-130r14,13v14,-27,21,-71,21,-134r0,-490","w":1251},"R":{"d":"867,-797v150,22,228,115,228,285r0,120v0,205,21,327,63,364r0,28r-314,0v-21,-53,-31,-179,-31,-376v0,-258,-27,-280,-288,-288r-104,0r0,664r-287,0r0,-1536r548,0v283,-3,427,117,427,370v0,224,-81,347,-242,369xm809,-1110v0,-146,-40,-201,-180,-201r-208,0r0,422r208,0v120,0,180,-74,180,-221xm622,-1664r0,0r0,0xm629,0r0,0r0,0xm0,-1568r0,0r0,0","w":1251},"S":{"d":"1040,-417v1,284,-171,449,-460,449v-312,0,-468,-152,-468,-456r0,-120r287,0r0,89v0,170,61,255,182,255v109,0,163,-59,163,-176v0,-63,-20,-115,-60,-155v-39,-40,-114,-95,-224,-164v-114,-72,-201,-143,-260,-214v-59,-71,-88,-155,-88,-254v0,-270,151,-405,452,-405v333,0,440,156,444,496r-278,0v9,-158,-38,-264,-166,-264v-104,0,-156,48,-156,144v0,53,15,95,46,125v31,30,107,86,228,166v130,85,222,160,276,226v54,66,82,151,82,258xm560,-1664r0,0r0,0xm581,0r0,0r0,0","w":1139},"T":{"d":"32,-1536r959,0r0,225r-336,0r0,1311r-287,0r0,-1311r-336,0r0,-225xm512,-1664r0,0r0,0xm512,0r0,0r0,0xm0,-1568r0,0r0,0"},"U":{"d":"630,32v-360,0,-491,-133,-491,-490r0,-1078r287,0r0,1054v2,182,36,282,196,282v172,0,205,-87,205,-282r0,-1054r287,0r0,1078v-5,347,-127,490,-484,490xm627,-1664r0,0r0,0xm790,0r0,0r0,0xm0,-1568r0,0r0,0","w":1251},"V":{"d":"581,-270r211,-1266r309,0r-336,1536r-381,0r-336,-1536r309,0","w":1139},"W":{"d":"48,-1536r296,0r180,1176r212,-1176r237,0r227,1182r165,-1182r296,0r-288,1536r-345,0r-176,-954r-171,954r-345,0","w":1706},"X":{"d":"22,0r381,-786r-368,-750r323,0r219,480r210,-480r323,0r-374,756r387,780r-320,0r-233,-510r-234,510r-314,0","w":1139},"Y":{"d":"16,-1536r314,0r234,588r225,-588r314,0r-400,882r0,654r-287,0r0,-654xm560,-1664r0,0r0,0xm0,-1568r0,0r0,0","w":1139},"Z":{"d":"67,0r0,-228r566,-1083r-535,0r0,-225r849,0r0,228r-571,1083r589,0r0,225r-898,0xm522,-1664r0,0r0,0xm0,-1568r0,0r0,0"},"\\":{"d":"407,192r-479,-1728r177,0r479,1728r-177,0","w":512},"]":{"d":"510,194r-400,0r0,-156r176,0r0,-1418r-176,0r0,-156r400,0r0,1730","w":682},"^":{"d":"227,-667r-208,-96r368,-779r246,0r368,779r-208,96r-283,-574"},"_":{"d":"0,254r0,-103r1024,0r0,103r-1024,0"},"`":{"d":"305,-1296r-305,-304r317,0r195,304r-207,0xm326,-1296r0,0r0,0","w":682},"a":{"d":"499,-978v-124,0,-148,37,-150,164r-254,0v0,-278,131,-368,405,-368v259,0,381,80,381,328r0,697v0,57,7,110,21,157r-254,0v-14,-36,-21,-82,-12,-130v-63,92,-122,160,-244,160v-203,0,-305,-114,-305,-343v0,-104,26,-183,77,-236v52,-53,139,-106,263,-156v68,-27,117,-50,147,-71v30,-22,45,-54,45,-95v0,-85,-29,-107,-120,-107xm615,-606v-74,54,-196,111,-242,179v-15,22,-20,58,-20,105v0,99,42,148,127,148v90,0,135,-60,135,-179r0,-253xm485,-1278r0,0r0,0xm721,0r0,0r0,0"},"b":{"d":"631,-1182v215,0,280,137,280,398r0,414v0,267,-90,400,-270,400v-115,0,-199,-53,-254,-160r0,130r-254,0r0,-1536r266,0r0,498v43,-96,121,-144,232,-144xm645,-779v-2,-132,-13,-199,-119,-199v-85,0,-127,75,-127,226r0,362v0,144,43,216,129,216v78,0,117,-69,117,-207r0,-398"},"c":{"d":"459,-1182v231,0,369,120,371,336r0,96r-266,0r0,-125v0,-69,-32,-103,-96,-103v-79,0,-102,99,-102,226r0,396v0,121,35,182,106,182v61,0,92,-61,92,-182r0,-94r266,0r0,107v0,249,-122,373,-365,373v-243,0,-365,-140,-365,-421r0,-383v0,-272,120,-408,359,-408xm479,-1278r0,0r0,0xm468,0r0,0r0,0","w":909},"d":{"d":"392,30v-219,0,-288,-138,-284,-398v3,-241,-29,-598,72,-721v50,-61,116,-93,202,-93v117,0,197,48,238,144r0,-498r266,0r0,1536r-266,0r0,-130v-47,107,-123,160,-228,160xm374,-823r0,468v0,121,38,181,114,181v88,0,132,-76,132,-229r0,-368v0,-138,-43,-207,-129,-207v-78,0,-117,52,-117,155"},"e":{"d":"499,-1182v314,0,403,117,403,483r0,177r-528,0r0,166v0,116,31,178,137,182v102,4,134,-89,125,-212r266,0v0,277,-123,416,-369,416v-310,0,-424,-146,-425,-469r0,-313v0,-287,130,-430,391,-430xm499,-978v-136,-5,-124,116,-125,252r262,0r0,-109v-1,-105,-35,-139,-137,-143xm514,-1278r0,0r0,0xm610,0r0,0r0,0"},"f":{"d":"144,-1275v4,-195,76,-257,281,-259r97,0r0,213v-45,-20,-112,-21,-112,42r0,127r112,0r0,195r-112,0r0,957r-266,0r0,-957r-96,0r0,-195r96,0r0,-123","w":569},"g":{"d":"907,-35v0,270,-116,421,-381,421v-247,0,-361,-57,-381,-256r266,0v2,47,42,65,105,65v83,0,125,-60,125,-181r0,-142v-51,105,-135,158,-250,158v-175,0,-262,-133,-262,-398r0,-416v1,-254,56,-398,275,-398v112,0,187,54,225,161r0,-131r278,0r0,1117xm395,-829r0,456v0,133,37,199,111,199v82,0,123,-76,123,-229r0,-361v0,-143,-40,-214,-121,-214v-75,0,-113,50,-113,149xm491,-1278r0,0r0,0"},"h":{"d":"637,-791v-3,-117,-11,-187,-114,-187v-88,0,-132,69,-132,206r0,772r-266,0r0,-1536r266,0r0,514v51,-107,133,-160,246,-160v167,0,266,111,266,291r0,891r-266,0r0,-791"},"i":{"d":"150,-1152r266,0r0,1152r-266,0r0,-1152xm150,-1539r266,0r0,243r-266,0r0,-243xm330,0r0,0r0,0","w":569},"j":{"d":"428,143v-6,183,-72,248,-282,247v-35,0,-63,-1,-84,-3r0,-207v63,5,100,-8,100,-73r0,-1259r266,0r0,1295xm162,-1296r0,-243r266,0r0,243r-266,0","w":569},"k":{"d":"100,0r0,-1536r266,0r0,843r253,-459r291,0r-296,473r288,679r-295,0r-169,-468r-72,117r0,351r-266,0xm501,0r0,0r0,0","w":909},"l":{"d":"150,0r0,-1536r266,0r0,1536r-266,0xm236,-1632r0,0r0,0xm277,0r0,0r0,0","w":569},"m":{"d":"530,-978v-113,0,-131,65,-131,206r0,772r-266,0r0,-1152r266,0r0,130v52,-107,141,-160,267,-160v126,0,223,64,240,160v32,-86,131,-160,266,-160v165,0,283,91,283,249r0,933r-266,0r0,-776v-3,-123,-11,-202,-117,-202v-121,0,-145,83,-145,218r0,760r-266,0r0,-791v-3,-125,-17,-187,-131,-187","w":1593},"n":{"d":"637,-791v-3,-117,-11,-187,-114,-187v-88,0,-132,69,-132,206r0,772r-266,0r0,-1152r266,0r0,130v51,-107,133,-160,246,-160v167,0,266,111,266,291r0,891r-266,0r0,-791xm547,-1278r0,0r0,0xm514,0r0,0r0,0"},"o":{"d":"516,30v-354,0,-400,-151,-408,-530r0,-133v0,-229,34,-377,101,-446v67,-69,170,-103,307,-103v329,0,398,152,402,520r0,138v0,221,-29,369,-86,443v-57,74,-163,111,-316,111xm520,-978v-113,0,-146,62,-146,185r0,424v3,145,15,195,143,195v127,0,135,-57,135,-195r0,-425v0,-123,-44,-184,-132,-184xm513,-1278r0,0r0,0"},"p":{"d":"641,30v-133,0,-192,-47,-238,-144r0,498r-266,0r0,-1536r266,0r0,130v46,-107,122,-160,228,-160v217,0,284,140,284,398r0,423v0,261,-91,391,-274,391xm649,-803v0,-105,-28,-175,-114,-175v-88,0,-132,76,-132,229r0,369v0,137,43,206,129,206v78,0,117,-69,117,-207r0,-422"},"q":{"d":"125,-784v1,-255,59,-398,282,-398v115,0,191,53,230,160r0,-130r266,0r0,1536r-266,0r0,-514v-55,105,-99,160,-244,160v-179,0,-268,-133,-268,-398r0,-416xm391,-814r0,441v0,133,39,199,117,199v86,0,129,-76,129,-229r0,-361v0,-143,-43,-214,-129,-214v-78,0,-117,55,-117,164"},"r":{"d":"125,0r0,-1152r258,0r0,204v52,-125,122,-231,280,-234r0,313v-163,-19,-272,42,-272,191r0,678r-266,0xm423,-1278r0,0r0,0xm264,0r0,0r0,0","w":682},"s":{"d":"560,-798v-1,-134,-18,-171,-121,-180v-109,-9,-139,109,-81,170v68,71,195,144,283,205v122,86,185,185,185,301v0,221,-126,332,-377,332v-277,0,-410,-147,-385,-416r266,0v-16,110,8,212,109,212v78,0,117,-34,117,-102v0,-41,-14,-72,-41,-94v-70,-56,-176,-128,-255,-184v-130,-92,-196,-209,-196,-352v0,-184,129,-276,387,-276v260,1,374,123,375,384r-266,0xm437,-1278r0,0r0,0xm440,0r0,0r0,0","w":909},"t":{"d":"376,18v-153,-2,-239,-53,-239,-206r0,-769r-108,0r0,-195r108,0r0,-320r266,0r0,320r112,0r0,195r-112,0r0,691v2,44,13,75,74,71v11,0,24,-1,38,-3r0,207v-44,6,-90,9,-139,9xm338,0r0,0r0,0","w":569},"u":{"d":"377,30v-195,-1,-256,-100,-256,-300r0,-882r266,0r0,818v0,107,36,160,107,160v82,0,123,-69,123,-206r0,-772r266,0r0,1152r-254,0r0,-178v-43,139,-127,208,-252,208xm514,-1278r0,0r0,0xm755,0r0,0r0,0xm0,-1182r0,0r0,0"},"v":{"d":"456,-279r162,-873r275,0r-272,1152r-333,0r-272,-1152r287,0","w":909},"w":{"d":"21,-1152r279,0r123,887r142,-887r220,0r156,887r122,-887r266,0r-240,1152r-291,0r-121,-670r-121,670r-295,0","w":1366},"x":{"d":"17,0r300,-585r-288,-567r312,0r117,279r128,-279r295,0r-289,562r293,590r-300,0r-132,-315r-132,315r-304,0","w":909},"y":{"d":"160,180v68,4,160,14,160,-56v0,-29,-6,-66,-17,-109r-287,-1167r279,0r159,828r156,-828r270,0r-304,1288v-46,172,-94,256,-293,260v-27,0,-68,-3,-123,-9r0,-207xm468,-1278r0,0r0,0xm0,-1182r0,0r0,0","w":909},"z":{"d":"46,0r0,-207r404,-741r-396,0r0,-204r696,0r0,189r-421,759r421,0r0,204r-704,0xm416,-1278r0,0r0,0xm0,-1182r0,0r0,0","w":797},"|":{"d":"160,-1546r205,0r0,2048r-205,0r0,-2048","w":512},"~":{"d":"697,-583v78,-5,110,-88,147,-144r116,148v-31,56,-67,109,-108,158v-40,49,-91,74,-153,74v-51,0,-122,-21,-212,-64v-89,-43,-145,-64,-166,-64v-34,0,-61,13,-82,39v-21,25,-46,66,-75,121r-116,-148v79,-165,171,-248,274,-248v67,-16,323,131,375,128"},"\"":{"d":"26,-1512r245,0r0,560r-245,0r0,-560xm400,-1512r245,0r0,560r-245,0r0,-560","w":682},"(":{"d":"384,-625v0,-441,52,-615,192,-951r-169,0v-198,360,-293,531,-293,1021v0,365,96,684,289,959r169,0v-147,-274,-188,-610,-188,-1029","w":682},":":{"d":"150,-270r270,0r0,270r-270,0r0,-270xm150,-1138r270,0r0,270r-270,0r0,-270","w":569},";":{"d":"150,215v91,-8,154,-101,143,-215r-143,0r0,-272r270,0r0,263v0,185,-90,290,-270,313r0,-89xm150,-1138r270,0r0,270r-270,0r0,-270","w":569},"<":{"d":"98,-411r848,460r0,-229r-603,-329r603,-346r0,-229r-848,469r0,204"},"@":{"d":"80,-778v0,-445,365,-798,812,-798v227,0,406,69,539,205v133,136,200,282,200,437v0,286,-160,492,-362,580v-68,30,-123,43,-164,43v-79,0,-104,-56,-97,-144v-83,85,-167,128,-252,128v-207,2,-341,-165,-341,-379v0,-247,184,-479,429,-479v121,0,208,43,261,128r23,-113r200,0r-112,646v0,21,10,32,31,32v31,0,77,-36,136,-109v59,-73,89,-169,89,-288v0,-332,-255,-536,-583,-536v-373,0,-650,273,-650,648v0,383,299,658,679,658v143,0,284,-62,421,-185r196,0v-165,224,-375,336,-631,336v-453,0,-824,-361,-824,-810xm816,-516v127,0,224,-140,224,-283v0,-98,-54,-198,-148,-197v-138,1,-250,129,-250,281v0,115,67,199,174,199","w":1706},"[":{"d":"172,194r400,0r0,-156r-176,0r0,-1418r176,0r0,-156r-400,0r0,1730","w":682},"{":{"d":"-80,-664v123,-25,160,-90,160,-235r0,-370v3,-173,67,-269,248,-267r168,0v-125,27,-167,90,-167,227r0,389v-4,149,-37,223,-175,252v131,22,175,108,175,272r0,366v0,121,56,195,167,222r-148,0v-212,-3,-268,-85,-268,-304r0,-323v-2,-138,-44,-200,-160,-229","w":561},"}":{"d":"640,-664v-108,27,-160,88,-160,231r0,323v-3,218,-58,298,-269,302r-147,0v111,-27,167,-102,167,-225r0,-364v-1,-177,45,-242,175,-271v-123,-32,-175,-80,-175,-251r0,-388v-3,-136,-42,-203,-167,-229r167,0v179,2,248,80,249,266r0,370v-1,152,45,209,160,236","w":561}}});
